svm_type c_svc
kernel_type rbf
gamma 0.0625
nr_class 11
total_sv 24
rho 0 0 0 0 0 0 0 0 0 0 0 0 0 0 0 0 0 0 0 0 0 0 0 0 0 0 0 0 0 0 0 0 0 0 0 0 0 0 0 0 0 0 0 0 0 0 0 0 0 0 0 0 0 0 0
label 0 1 2 3 4 5 6 7 8 9 9999
nr_sv 2 2 2 3 2 2 2 2 2 3 2
SV
0 0.13563189051152241 0.40155113465535963 0.00062711974899216656 0.089425489673066655 0.24519305318582127 0.0099007178443070269 0.48071910461820522 0.15651764041522495 0.00080538113611552822 1:6 2:2 3:2 4:2 5:2 6:6 7:2 8:2 9:2 10:2 11:2 12:2 13:2 14:2 15:2 16:2 
1 1 1 1 1 1 1 1 1 1 1:6 2:2 3:2 4:2 5:2 6:6 7:2 8:2 9:2 10:2 11:2 12:2 13:2 14:2 15:2 16:2 
-0 0.0019341880251388256 0 0 0 0 0.00527520013007232 0 0 0 2:2 3:2 4:10 5:1 6:1 7:1 8:2 9:2 10:1 11:1 12:1 13:1 14:1 15:1 16:5 
-1 1 1 1 1 1 1 1 1 1 2:2 3:2 4:10 5:1 6:1 7:1 8:2 9:2 10:1 11:1 12:1 13:1 14:1 15:1 16:5 
-0.13563189051152241 -0.0019341880251388256 0.48071910461820522 0 0.33840068801062667 0.28721692736367604 0.021194209074968336 0.24519305318582127 0.15651764041522495 0 1:5 2:3 3:3 4:3 5:3 6:4 7:4 8:2 9:2 10:1 11:2 12:1 13:1 14:1 15:1 16:6 
-1 -1 1 1 1 1 1 1 1 1 1:5 2:3 3:3 4:3 5:3 6:4 7:4 8:2 9:2 10:1 11:2 12:1 13:1 14:1 15:1 16:6 
-0 -0 -0 0 0 0 0 0 0.15174748195432125 0 1:4 2:2 3:3 4:3 5:3 6:7 7:4 8:2 9:2 10:1 11:3 12:1 13:1 14:2 15:2 16:4 
-0.40155113465535963 -0 -0.48071910461820522 0 0.40155113465535963 0.21032251790589848 0.031137659697550689 0.71485997960633851 1 0 1:4 2:2 3:3 4:3 5:3 6:7 7:4 8:2 9:2 10:1 11:3 12:1 13:1 14:2 15:2 16:4 
-1 -1 -1 1 1 1 1 1 1 1 1:4 2:2 3:3 4:3 5:3 6:7 7:4 8:2 9:2 10:1 11:3 12:1 13:1 14:2 15:2 16:4 
-0.00062711974899216656 -0 -0 -0 0 0.00055339043435965898 0.00103436643188358 0 0 0 1:3 2:2 3:2 4:2 5:10 6:1 7:1 8:2 9:2 10:2 11:2 12:2 13:6 14:1 15:1 16:1 
-1 -1 -1 -1 1 1 1 1 1 1 1:3 2:2 3:2 4:2 5:10 6:1 7:1 8:2 9:2 10:2 11:2 12:2 13:6 14:1 15:1 16:1 
-0.089425489673066655 -0 -0.33840068801062667 -0.40155113465535963 -0 0.71485997960633851 0.014470647042166216 0.58197672976796433 0.33840068801062667 0 1:6 2:3 3:3 4:3 5:3 6:5 7:6 8:1 9:1 10:1 11:5 12:1 13:1 14:1 15:2 16:4 
-1 -1 -1 -1 -1 1 1 1 1 1 1:6 2:3 3:3 4:3 5:3 6:5 7:6 8:1 9:1 10:1 11:5 12:1 13:1 14:1 15:2 16:4 
-0.24519305318582127 -0 -0.28721692736367604 -0.21032251790589848 -0.00055339043435965898 -0.71485997960633851 0.004103541751805613 0.71485997960633851 0.13563189051152241 0 1:7 2:3 3:3 4:3 5:3 6:4 7:3 8:1 9:1 10:1 11:5 12:2 13:2 14:2 15:2 16:4 
-1 -1 -1 -1 -1 -1 1 1 1 1 1:7 2:3 3:3 4:3 5:3 6:4 7:3 8:1 9:1 10:1 11:5 12:2 13:2 14:2 15:2 16:4 
-0.0099007178443070269 -0.00527520013007232 -0.021194209074968336 -0.031137659697550689 -0.00103436643188358 -0.014470647042166216 -0.004103541751805613 0.002816705692865934 0.024084151446175775 0.0024849117659605804 1:1 2:1 3:1 4:5 5:4 6:3 7:6 8:1 9:1 10:1 11:1 12:1 13:1 14:1 15:1 16:1 
-1 -1 -1 -1 -1 -1 -1 1 1 1 1:1 2:1 3:1 4:5 5:4 6:3 7:6 8:1 9:1 10:1 11:1 12:1 13:1 14:1 15:1 16:1 
-0.48071910461820522 -0 -0.24519305318582127 -0.71485997960633851 -0 -0.58197672976796433 -0.71485997960633851 -0.002816705692865934 0.33840068801062667 0 1:7 2:3 3:3 4:3 5:3 6:7 7:4 8:2 9:2 10:2 11:4 12:2 13:2 14:2 15:2 16:4 
-1 -1 -1 -1 -1 -1 -1 -1 1 1 1:7 2:3 3:3 4:3 5:3 6:7 7:4 8:2 9:2 10:2 11:4 12:2 13:2 14:2 15:2 16:4 
-0 -0 -0 -0.15174748195432125 -0 -0 -0 -0 -0 0 1:3 2:3 3:3 4:3 5:3 6:7 7:4 8:2 9:2 10:2 11:5 12:1 13:1 14:1 15:1 16:3 
-0.15651764041522495 -0 -0.15651764041522495 -1 -0 -0.33840068801062667 -0.13563189051152241 -0.024084151446175775 -0.33840068801062667 0 1:3 2:3 3:3 4:3 5:3 6:7 7:4 8:2 9:2 10:2 11:5 12:1 13:1 14:1 15:1 16:3 
-1 -1 -1 -1 -1 -1 -1 -1 -1 1 1:3 2:3 3:3 4:3 5:3 6:7 7:4 8:2 9:2 10:2 11:5 12:1 13:1 14:1 15:1 16:3 
-0.00080538113611552822 -0 -0 -0 -0 -0 -0 -0.0024849117659605804 -0 -0 2:1 3:2 15:2 16:1 
-1 -1 -1 -1 -1 -1 -1 -1 -1 -1 2:1 3:2 15:2 16:1 
